<?xml version="1.0" encoding="UTF-8" standalone="no"?>
<NeuralNetwork scaleMax="30.0" scaleMin="15.0">
<NeuralLayer>
<Neuron>
<Bias>-Infinity</Bias>
</Neuron>
<Neuron>
<Bias>-Infinity</Bias>
</Neuron>
</NeuralLayer>
<NeuralLayer>
<Neuron>
<Weight>1.453468918406068</Weight>
<Weight>-1.0991270247122327</Weight>
<Bias>1.2471848660489728</Bias>
</Neuron>
<Neuron>
<Weight>1.1441093472613013</Weight>
<Weight>-2.8626532302602006</Weight>
<Bias>-0.3513848870118921</Bias>
</Neuron>
<Neuron>
<Weight>0.9523993858437391</Weight>
<Weight>1.2106593701519042</Weight>
<Bias>-0.8195175404886027</Bias>
</Neuron>
</NeuralLayer>
<NeuralLayer>
<Neuron>
<Weight>0.2750477154792207</Weight>
<Weight>-0.2365498416485658</Weight>
<Weight>1.1400755943656737</Weight>
<Bias>-0.9005920431202168</Bias>
</Neuron>
<Neuron>
<Weight>-1.3072863398827608</Weight>
<Weight>-0.06572681389846229</Weight>
<Weight>1.8836953738542146</Weight>
<Bias>-1.0198807943832935</Bias>
</Neuron>
<Neuron>
<Weight>1.6679468234767612</Weight>
<Weight>-2.0467075074024503</Weight>
<Weight>1.8520497742502209</Weight>
<Bias>1.5989689339892998</Bias>
</Neuron>
<Neuron>
<Weight>0.5931611954878927</Weight>
<Weight>-0.8765578197963559</Weight>
<Weight>0.12075640241698966</Weight>
<Bias>-0.07457250818948391</Bias>
</Neuron>
<Neuron>
<Weight>0.12292617326243166</Weight>
<Weight>-0.992272056215414</Weight>
<Weight>-2.5085290857989087</Weight>
<Bias>-0.4854345502918645</Bias>
</Neuron>
</NeuralLayer>
<NeuralLayer>
<Neuron>
<Weight>1.0558614251481293</Weight>
<Weight>-0.926299768954149</Weight>
<Weight>0.621141594202183</Weight>
<Weight>-0.8970489313111538</Weight>
<Weight>0.5832643388352806</Weight>
<Bias>-1.2133012403662493</Bias>
</Neuron>
</NeuralLayer>
</NeuralNetwork>
