<?xml version="1.0" encoding="UTF-8" standalone="no"?>
<NeuralNetwork scaleMax="30.0" scaleMin="15.0">
<NeuralLayer>
<Neuron>
<Bias>-Infinity</Bias>
</Neuron>
<Neuron>
<Bias>Infinity</Bias>
</Neuron>
</NeuralLayer>
<NeuralLayer>
<Neuron>
<Weight>2.12987079008162</Weight>
<Weight>0.1699029961494207</Weight>
<Bias>-0.4144368228115515</Bias>
</Neuron>
<Neuron>
<Weight>0.02813932715659975</Weight>
<Weight>2.5200311309987367</Weight>
<Bias>0.8109016641327826</Bias>
</Neuron>
<Neuron>
<Weight>-0.5883665085146808</Weight>
<Weight>-2.583620748552959</Weight>
<Bias>2.7132356101322395</Bias>
</Neuron>
</NeuralLayer>
<NeuralLayer>
<Neuron>
<Weight>-0.8651081510839</Weight>
<Weight>-0.47841357542275403</Weight>
<Weight>-2.1879114468203458</Weight>
<Bias>0.668107596316156</Bias>
</Neuron>
<Neuron>
<Weight>-0.09139939329792199</Weight>
<Weight>2.835839983018053</Weight>
<Weight>0.5289860319241974</Weight>
<Bias>-0.19797305708092072</Bias>
</Neuron>
<Neuron>
<Weight>-0.15324300205371205</Weight>
<Weight>1.299225232439323</Weight>
<Weight>-0.23928741447889718</Weight>
<Bias>0.7797793132828224</Bias>
</Neuron>
<Neuron>
<Weight>1.79339987545578</Weight>
<Weight>-0.2321414248650259</Weight>
<Weight>-0.48390860621580595</Weight>
<Bias>-0.5911056230518432</Bias>
</Neuron>
<Neuron>
<Weight>0.4086192583324747</Weight>
<Weight>0.30815170679358866</Weight>
<Weight>-0.3569589109721091</Weight>
<Bias>-0.22708668850560057</Bias>
</Neuron>
</NeuralLayer>
<NeuralLayer>
<Neuron>
<Weight>-0.909109599285876</Weight>
<Weight>0.47726678217268503</Weight>
<Weight>-0.6104401428352162</Weight>
<Weight>-0.3923456010847717</Weight>
<Weight>0.6043280456250644</Weight>
<Bias>-1.529756130534581</Bias>
</Neuron>
</NeuralLayer>
</NeuralNetwork>
